{
  "version": "1.1.0",
  "trained_at": "2026-06-14T16:12:35.032329+00:00",
  "drift_classifier": {
    "classes": [
      "confidence_inflation",
      "domain_mismatch",
      "format_error",
      "none",
      "propagation",
      "retrieval_miss",
      "severity_underrate"
    ],
    "weights": [
      [
        1.287515190109708,
        5.107322564107,
        -1.5745561181546226,
        -0.9183161323955187,
        -3.6814326318576436,
        0.0,
        1.5745561181546226,
        -0.3285009926155528,
        -0.10879860311122541,
        -0.1303634606651606,
        -0.004834002559065189,
        -1.3939218173535222,
        1.1993768029969103,
        0.0,
        0.0,
        -4.164634117811747,
        5.820246972121646,
        -0.19454501435661062,
        -0.19454501435661062,
        -0.20071471446739625,
        -0.11748799472186311,
        -0.6077392007502368,
        -1.1791459552695223,
        2.3350661111294637
      ],
      [
        0.9596502763627764,
        2.192888651485898,
        -2.3483509672288223,
        -5.389098514316718,
        -1.4497261304463465,
        0.0,
        2.3483509672288223,
        1.9685140555787732,
        0.16048597116593163,
        0.2998302721766016,
        0.2597155590997016,
        -2.017607025639039,
        2.110656939283837,
        0.0,
        0.0,
        1.4843277037792257,
        -7.703755705977905,
        0.09304991364482397,
        0.09304991364482397,
        0.05186264872523476,
        -0.6442890039402737,
        -1.17358466054745,
        -0.7503096084530305,
        -1.6389508454181234
      ],
      [
        -1.8599590522057547,
        2.833989549848021,
        7.306290137385666,
        -2.1110335003265384,
        -3.909425746801296,
        0.0,
        -7.306290137385666,
        0.0045021973538807445,
        -0.25287777853988896,
        -0.08308458828443085,
        0.09550164934746946,
        0.06181485866792869,
        -0.09417619571833365,
        0.0,
        0.0,
        3.717241713682602,
        2.370547009599776,
        -0.03236133705040362,
        -0.03236133705040362,
        1.8618158739245252,
        0.44512667638934333,
        -4.494655322476779,
        -1.5795676077488012,
        0.5245500767437167
      ],
      [
        0.7230152209131945,
        -3.4351398820292696,
        -2.575512907758621,
        1.2277440329966753,
        3.4952243773484284,
        0.0,
        2.575512907758621,
        2.4470484717189156,
        0.10205053260717173,
        -0.02718597785895911,
        -0.17668512951267185,
        0.6086439621860377,
        -0.7394536115936096,
        0.0,
        0.0,
        6.568747750520509,
        5.447927292211898,
        -0.1308096494075648,
        -0.1308096494075648,
        -0.5907296094819549,
        1.3747742228620703,
        5.872598365339045,
        2.066871244057081,
        -1.1673601459951617
      ],
      [
        -0.876671564640358,
        -6.7658761441021085,
        0.8660363942087299,
        7.199549613298414,
        5.893278274323007,
        0.0,
        -0.8660363942087299,
        -1.9637156887553247,
        -0.014747455492996091,
        -0.19080031982941223,
        -0.2666452924473715,
        -1.0041634682625835,
        1.1605444743044058,
        0.0,
        0.0,
        -4.7001489532136915,
        -2.0345695091564537,
        0.15638100604179755,
        0.15638100604179755,
        0.03400771482053649,
        0.07529343507985355,
        0.6553963536557642,
        1.0098543812478944,
        0.060502041237457414
      ],
      [
        -0.2335500705395971,
        0.06681526069042434,
        -1.673906538452308,
        -0.008845499256383966,
        -0.34791814256616915,
        0.0,
        1.673906538452308,
        -2.1278480432807227,
        0.113887333370986,
        0.13160407446134956,
        0.09294721607193517,
        3.74523349040116,
        -3.6369484092732427,
        0.0,
        0.0,
        -2.9055340969569343,
        -3.9003960587989335,
        0.10828508112792673,
        0.10828508112792673,
        -1.156241913520959,
        -1.133417335669123,
        -0.2520155352203208,
        0.43229754616637206,
        -0.11380723769734583
      ]
    ],
    "bias": [
      -5.929417669106987,
      3.339127685951998,
      2.108295454357706,
      -7.783236802836984,
      3.6414216248484728,
      4.623809706785977
    ]
  },
  "ranker": {
    "weights": [
      17.05141607773112,
      -9.296302438240149,
      48.11172104536406,
      -25.934556533817478,
      -0.29265527829807547,
      -8.414799190614056,
      1.9712561597598663,
      6.431297607293634
    ],
    "bias": 1.0085703049716795e-08
  },
  "metrics": {
    "drift_accuracy": 0.9874074074074074,
    "ranker_top1": 0.9761111111111112
  }
}